Language model created by QuickLM on Wed Apr 26 07:21:20 EDT 2023
Copyright (c) 1996-2010 Carnegie Mellon University and Alexander I. Rudnicky

The model is in standard ARPA format, designed by Doug Paul while he was at MITRE.

The code that was used to produce this language model is available in Open Source.
Please visit http://www.speech.cs.cmu.edu/tools/ for more information

The (fixed) discount mass is 0.5. The backoffs are computed using the ratio method.
This model based on a corpus of 5 sentences and 9 words

\data\
ngram 1=9
ngram 2=12
ngram 3=10

\1-grams:
-0.9031 </s> -0.3010
-0.9031 <s> -0.2430
-1.6021 CALCULATOR -0.2430
-1.6021 CHROME -0.2430
-1.6021 MUSIC -0.2430
-1.0000 OPEN -0.2553
-1.6021 PLAY -0.2900
-1.6021 PROJECT -0.2430
-1.6021 YOUTUBE -0.2430

\2-grams:
-0.3979 <s> OPEN 0.0000
-1.0000 <s> PLAY 0.0000
-0.3010 CALCULATOR </s> -0.3010
-0.3010 CHROME </s> -0.3010
-0.3010 MUSIC </s> -0.3010
-0.9031 OPEN CALCULATOR 0.0000
-0.9031 OPEN CHROME 0.0000
-0.9031 OPEN PROJECT 0.0000
-0.9031 OPEN YOUTUBE 0.0000
-0.3010 PLAY MUSIC 0.0000
-0.3010 PROJECT </s> -0.3010
-0.3010 YOUTUBE </s> -0.3010

\3-grams:
-0.9031 <s> OPEN CALCULATOR
-0.9031 <s> OPEN CHROME
-0.9031 <s> OPEN PROJECT
-0.9031 <s> OPEN YOUTUBE
-0.3010 <s> PLAY MUSIC
-0.3010 OPEN CALCULATOR </s>
-0.3010 OPEN CHROME </s>
-0.3010 OPEN PROJECT </s>
-0.3010 OPEN YOUTUBE </s>
-0.3010 PLAY MUSIC </s>

\end\
